const model = {
  "neuronCounts": [
    5,
    10,
    8
  ],
  "classes": [
    "car",
    "fish",
    "house",
    "tree",
    "bicycle",
    "guitar",
    "pencil",
    "clock"
  ],
  "network": {
    "levels": [
      {
        "weights": [
          [
            -1.2415387991536573,
            1.6599098137770474,
            1.4377447507814778,
            -2.5455119903519883,
            0.8130393052664127,
            -0.022805783624405416,
            -0.18030073110604217,
            1.0455934325851157,
            0.12018453563301004,
            -1.488287328462071
          ],
          [
            0.3451365749898952,
            -1.0190022634456573,
            -0.7853999493548028,
            2.0100499830018546,
            -2.6298209370705323,
            0.8145811061399258,
            -2.087454739661915,
            -1.0003254857797195,
            -0.5960553539917999,
            -0.9166404843718313
          ],
          [
            2.0266065403597646,
            5.987806310167574,
            1.8856291229936755,
            1.4682766010310877,
            1.1675470882022072,
            3.913737017927999,
            -3.4410137080150456,
            -6.6553043265467835,
            5.533849686665892,
            5.395333229800332
          ],
          [
            -1.7456975867858422,
            -1.83533473996253,
            1.7235850708913127,
            1.4550022943120193,
            1.6339142333181251,
            1.032356568225409,
            1.3533108608818731,
            2.0924049427161595,
            0.24529610986345662,
            -0.12245326277919674
          ],
          [
            0.41012463621711504,
            1.2499221055354077,
            1.4397710283333558,
            -0.16961715494582555,
            -0.3652405223215573,
            1.9302499570006146,
            0.9121063203584115,
            0.927077176761112,
            -5.374203878150528,
            -1.5320068295630396
          ]
        ],
        "biases": [
          0.426549350666926,
          1.2215291132791284,
          -1.8090953274879649,
          -1.303044993434799,
          -0.7304642105065603,
          -0.6772092715604691,
          -0.24223694679244548,
          -1.4382414285550378,
          0.2719430625398314,
          0.15683742018364813
        ],
        "inputs": [
          0,
          0,
          0,
          0,
          0
        ],
        "outputs": [
          0,
          0,
          0,
          0,
          0,
          0,
          0,
          0,
          0,
          0
        ]
      },
      {
        "weights": [
          [
            -0.7999370889515364,
            -1.5690562428539314,
            -0.16573570320526582,
            -0.918976344503368,
            -0.6507320527771052,
            0.9998455926513043,
            1.7809238556611422,
            0.13476346859607588
          ],
          [
            0.9480956213810814,
            1.7343253318883978,
            -0.6636972826406791,
            -1.7619441842318466,
            1.6250208540411768,
            1.843768543316692,
            0.04571561295473058,
            -3.2020698682001774
          ],
          [
            5.6792184323636485,
            -1.8941534643596485,
            -3.3377027206243866,
            -0.6558816825571194,
            -2.8130115662736626,
            -0.4184110681778709,
            0.06451437172577733,
            5.818073764941737
          ],
          [
            -1.219893108430162,
            -1.508495978837668,
            -0.5336748040811267,
            2.698678669625582,
            -2.941468967201256,
            -0.3681865547980135,
            -1.1125884023085286,
            6.000042938535009
          ],
          [
            3.534785297956881,
            0.8744778947720885,
            -1.0063241419634554,
            -3.7194501865672125,
            0.608891572492887,
            0.786692388491414,
            -2.7303558028966366,
            2.7854206469326086
          ],
          [
            -0.3584496045519491,
            -0.899812097758111,
            -0.358413522654122,
            -0.0672605465923144,
            -0.2545661825959584,
            -1.3302437055379221,
            0.12082535990705691,
            4.500143285146135
          ],
          [
            1.0503552359087545,
            1.2550196516888745,
            1.54825350964707,
            -1.4563798509125372,
            3.474313183109649,
            -1.3613345461885884,
            -2.534269356692815,
            0.027314340362622248
          ],
          [
            0.5167265544954444,
            0.047047486510243146,
            0.579254956515838,
            2.884712536578025,
            1.958757709469945,
            -5.309827777651313,
            -0.2867904833855294,
            0.7830326836527018
          ],
          [
            1.653316403512636,
            0.784909282355136,
            -2.537319933462507,
            2.3079638290984974,
            -1.4749411517159479,
            -2.2381242858045782,
            0.9244665868863791,
            1.9706494267235077
          ],
          [
            -0.08958578296922526,
            1.0082341835864448,
            -1.3985183470911404,
            -0.7281807275715079,
            -0.7337128621372089,
            -2.558162450359965,
            2.596224892586405,
            1.2406884669268656
          ]
        ],
        "biases": [
          -1.1581805421024054,
          0.8407428735535861,
          0.2965315417297746,
          -0.2620481425532847,
          -0.9861706079294447,
          -1.8998329296293415,
          -0.5274173722410032,
          1.2981618900487735
        ],
        "inputs": [
          0,
          0,
          0,
          0,
          0,
          0,
          0,
          0,
          0,
          0
        ],
        "outputs": [
          0,
          0,
          0,
          0,
          0,
          0,
          0,
          0
        ]
      }
    ]
  }
};